
\data\
ngram 1=5
ngram 2=5

\1-grams:
-0.4259687	</s>
-99	<s>	-99
-0.90309	FILLER	-99
-0.60206	同学	-99
-0.60206	小爱	-99

\2-grams:
-0.4771213	<s> FILLER
-0.1760913	<s> 小爱
0	FILLER </s>
0	同学 </s>
0	小爱 同学

\end\
